digraph Tree {
node [shape=box] ;
0 [label="X[22] <= 0.5\ngini = 0.345\nsamples = 30000\nvalue = [23364, 6636]"] ;
1 [label="gini = 0.0\nsamples = 23364\nvalue = [23364, 0]"] ;
0 -> 1 [labeldistance=2.5, labelangle=45, headlabel="True"] ;
2 [label="gini = 0.0\nsamples = 6636\nvalue = [0, 6636]"] ;
0 -> 2 [labeldistance=2.5, labelangle=-45, headlabel="False"] ;
}